digraph Tree {
node [shape=box] ;
0 [label="Title_Mr <= 0.5\ngini = 0.473\nsamples = 891\nvalue = [549, 342]\nclass = Perish"] ;
1 [label="Pclass <= 2.5\ngini = 0.422\nsamples = 374\nvalue = [113, 261]\nclass = Survivied"] ;
0 -> 1 [labeldistance=2.5, labelangle=45, headlabel="True"] ;
2 [label="Title_Else <= 0.5\ngini = 0.209\nsamples = 202\nvalue = [24, 178]\nclass = Survivied"] ;
1 -> 2 ;
3 [label="Fare <= 28.856\ngini = 0.098\nsamples = 175\nvalue = [9, 166]\nclass = Survivied"] ;
2 -> 3 ;
4 [label="Fare <= 28.231\ngini = 0.173\nsamples = 73\nvalue = [7, 66]\nclass = Survivied"] ;
3 -> 4 ;
5 [label="Age <= 56.0\ngini = 0.153\nsamples = 72\nvalue = [6, 66]\nclass = Survivied"] ;
4 -> 5 ;
6 [label="Ticket_encode <= 0.5\ngini = 0.133\nsamples = 70\nvalue = [5, 65]\nclass = Survivied"] ;
5 -> 6 ;
7 [label="Age <= 21.5\ngini = 0.18\nsamples = 50\nvalue = [5, 45]\nclass = Survivied"] ;
6 -> 7 ;
8 [label="gini = 0.0\nsamples = 13\nvalue = [0, 13]\nclass = Survivied"] ;
7 -> 8 ;
9 [label="Age <= 27.5\ngini = 0.234\nsamples = 37\nvalue = [5, 32]\nclass = Survivied"] ;
7 -> 9 ;
10 [label="Age <= 25.5\ngini = 0.42\nsamples = 10\nvalue = [3, 7]\nclass = Survivied"] ;
9 -> 10 ;
11 [label="gini = 0.245\nsamples = 7\nvalue = [1, 6]\nclass = Survivied"] ;
10 -> 11 ;
12 [label="gini = 0.444\nsamples = 3\nvalue = [2, 1]\nclass = Perish"] ;
10 -> 12 ;
13 [label="Age <= 37.0\ngini = 0.137\nsamples = 27\nvalue = [2, 25]\nclass = Survivied"] ;
9 -> 13 ;
14 [label="gini = 0.0\nsamples = 17\nvalue = [0, 17]\nclass = Survivied"] ;
13 -> 14 ;
15 [label="gini = 0.32\nsamples = 10\nvalue = [2, 8]\nclass = Survivied"] ;
13 -> 15 ;
16 [label="gini = 0.0\nsamples = 20\nvalue = [0, 20]\nclass = Survivied"] ;
6 -> 16 ;
17 [label="Title_Miss <= 0.5\ngini = 0.5\nsamples = 2\nvalue = [1, 1]\nclass = Perish"] ;
5 -> 17 ;
18 [label="gini = 0.0\nsamples = 1\nvalue = [1, 0]\nclass = Perish"] ;
17 -> 18 ;
19 [label="gini = 0.0\nsamples = 1\nvalue = [0, 1]\nclass = Survivied"] ;
17 -> 19 ;
20 [label="gini = 0.0\nsamples = 1\nvalue = [1, 0]\nclass = Perish"] ;
4 -> 20 ;
21 [label="Age <= 2.5\ngini = 0.038\nsamples = 102\nvalue = [2, 100]\nclass = Survivied"] ;
3 -> 21 ;
22 [label="Title_Miss <= 0.5\ngini = 0.32\nsamples = 5\nvalue = [1, 4]\nclass = Survivied"] ;
21 -> 22 ;
23 [label="gini = 0.0\nsamples = 4\nvalue = [0, 4]\nclass = Survivied"] ;
22 -> 23 ;
24 [label="gini = 0.0\nsamples = 1\nvalue = [1, 0]\nclass = Perish"] ;
22 -> 24 ;
25 [label="Parch <= 1.5\ngini = 0.02\nsamples = 97\nvalue = [1, 96]\nclass = Survivied"] ;
21 -> 25 ;
26 [label="gini = 0.0\nsamples = 80\nvalue = [0, 80]\nclass = Survivied"] ;
25 -> 26 ;
27 [label="Title_Mrs <= 0.5\ngini = 0.111\nsamples = 17\nvalue = [1, 16]\nclass = Survivied"] ;
25 -> 27 ;
28 [label="gini = 0.0\nsamples = 13\nvalue = [0, 13]\nclass = Survivied"] ;
27 -> 28 ;
29 [label="Fare <= 135.775\ngini = 0.375\nsamples = 4\nvalue = [1, 3]\nclass = Survivied"] ;
27 -> 29 ;
30 [label="gini = 0.0\nsamples = 3\nvalue = [0, 3]\nclass = Survivied"] ;
29 -> 30 ;
31 [label="gini = 0.0\nsamples = 1\nvalue = [1, 0]\nclass = Perish"] ;
29 -> 31 ;
32 [label="Sex_encode <= 0.5\ngini = 0.494\nsamples = 27\nvalue = [15, 12]\nclass = Perish"] ;
2 -> 32 ;
33 [label="Fare <= 29.11\ngini = 0.375\nsamples = 20\nvalue = [15, 5]\nclass = Perish"] ;
32 -> 33 ;
34 [label="gini = 0.0\nsamples = 11\nvalue = [11, 0]\nclass = Perish"] ;
33 -> 34 ;
35 [label="Age <= 30.85\ngini = 0.494\nsamples = 9\nvalue = [4, 5]\nclass = Survivied"] ;
33 -> 35 ;
36 [label="gini = 0.0\nsamples = 2\nvalue = [2, 0]\nclass = Perish"] ;
35 -> 36 ;
37 [label="Fare <= 63.965\ngini = 0.408\nsamples = 7\nvalue = [2, 5]\nclass = Survivied"] ;
35 -> 37 ;
38 [label="gini = 0.0\nsamples = 4\nvalue = [0, 4]\nclass = Survivied"] ;
37 -> 38 ;
39 [label="Fare <= 111.825\ngini = 0.444\nsamples = 3\nvalue = [2, 1]\nclass = Perish"] ;
37 -> 39 ;
40 [label="gini = 0.0\nsamples = 2\nvalue = [2, 0]\nclass = Perish"] ;
39 -> 40 ;
41 [label="gini = 0.0\nsamples = 1\nvalue = [0, 1]\nclass = Survivied"] ;
39 -> 41 ;
42 [label="gini = 0.0\nsamples = 7\nvalue = [0, 7]\nclass = Survivied"] ;
32 -> 42 ;
43 [label="Fare <= 23.35\ngini = 0.499\nsamples = 172\nvalue = [89, 83]\nclass = Perish"] ;
1 -> 43 ;
44 [label="Age <= 36.5\ngini = 0.473\nsamples = 128\nvalue = [49, 79]\nclass = Survivied"] ;
43 -> 44 ;
45 [label="Embarked_S <= 0.5\ngini = 0.458\nsamples = 121\nvalue = [43, 78]\nclass = Survivied"] ;
44 -> 45 ;
46 [label="Age <= 30.1\ngini = 0.388\nsamples = 57\nvalue = [15, 42]\nclass = Survivied"] ;
45 -> 46 ;
47 [label="Fare <= 15.373\ngini = 0.361\nsamples = 55\nvalue = [13, 42]\nclass = Survivied"] ;
46 -> 47 ;
48 [label="Fare <= 13.935\ngini = 0.416\nsamples = 44\nvalue = [13, 31]\nclass = Survivied"] ;
47 -> 48 ;
49 [label="Fare <= 6.987\ngini = 0.298\nsamples = 33\nvalue = [6, 27]\nclass = Survivied"] ;
48 -> 49 ;
50 [label="gini = 0.0\nsamples = 1\nvalue = [1, 0]\nclass = Perish"] ;
49 -> 50 ;
51 [label="Parch <= 1.5\ngini = 0.264\nsamples = 32\nvalue = [5, 27]\nclass = Survivied"] ;
49 -> 51 ;
52 [label="gini = 0.225\nsamples = 31\nvalue = [4, 27]\nclass = Survivied"] ;
51 -> 52 ;
53 [label="gini = 0.0\nsamples = 1\nvalue = [1, 0]\nclass = Perish"] ;
51 -> 53 ;
54 [label="Title_Miss <= 0.5\ngini = 0.463\nsamples = 11\nvalue = [7, 4]\nclass = Perish"] ;
48 -> 54 ;
55 [label="Title_Master <= 0.5\ngini = 0.444\nsamples = 6\nvalue = [2, 4]\nclass = Survivied"] ;
54 -> 55 ;
56 [label="gini = 0.5\nsamples = 4\nvalue = [2, 2]\nclass = Perish"] ;
55 -> 56 ;
57 [label="gini = 0.0\nsamples = 2\nvalue = [0, 2]\nclass = Survivied"] ;
55 -> 57 ;
58 [label="gini = 0.0\nsamples = 5\nvalue = [5, 0]\nclass = Perish"] ;
54 -> 58 ;
59 [label="gini = 0.0\nsamples = 11\nvalue = [0, 11]\nclass = Survivied"] ;
47 -> 59 ;
60 [label="gini = 0.0\nsamples = 2\nvalue = [2, 0]\nclass = Perish"] ;
46 -> 60 ;
61 [label="Fare <= 10.825\ngini = 0.492\nsamples = 64\nvalue = [28, 36]\nclass = Survivied"] ;
45 -> 61 ;
62 [label="Fare <= 7.763\ngini = 0.489\nsamples = 33\nvalue = [19, 14]\nclass = Perish"] ;
61 -> 62 ;
63 [label="Age <= 26.35\ngini = 0.278\nsamples = 6\nvalue = [1, 5]\nclass = Survivied"] ;
62 -> 63 ;
64 [label="gini = 0.0\nsamples = 5\nvalue = [0, 5]\nclass = Survivied"] ;
63 -> 64 ;
65 [label="gini = 0.0\nsamples = 1\nvalue = [1, 0]\nclass = Perish"] ;
63 -> 65 ;
66 [label="Age <= 19.5\ngini = 0.444\nsamples = 27\nvalue = [18, 9]\nclass = Perish"] ;
62 -> 66 ;
67 [label="Age <= 15.5\ngini = 0.49\nsamples = 7\nvalue = [3, 4]\nclass = Survivied"] ;
66 -> 67 ;
68 [label="gini = 0.0\nsamples = 2\nvalue = [2, 0]\nclass = Perish"] ;
67 -> 68 ;
69 [label="Fare <= 7.815\ngini = 0.32\nsamples = 5\nvalue = [1, 4]\nclass = Survivied"] ;
67 -> 69 ;
70 [label="gini = 0.0\nsamples = 1\nvalue = [1, 0]\nclass = Perish"] ;
69 -> 70 ;
71 [label="gini = 0.0\nsamples = 4\nvalue = [0, 4]\nclass = Survivied"] ;
69 -> 71 ;
72 [label="Fare <= 7.988\ngini = 0.375\nsamples = 20\nvalue = [15, 5]\nclass = Perish"] ;
66 -> 72 ;
73 [label="Age <= 27.5\ngini = 0.494\nsamples = 9\nvalue = [5, 4]\nclass = Perish"] ;
72 -> 73 ;
74 [label="gini = 0.49\nsamples = 7\nvalue = [3, 4]\nclass = Survivied"] ;
73 -> 74 ;
75 [label="gini = 0.0\nsamples = 2\nvalue = [2, 0]\nclass = Perish"] ;
73 -> 75 ;
76 [label="Age <= 30.5\ngini = 0.165\nsamples = 11\nvalue = [10, 1]\nclass = Perish"] ;
72 -> 76 ;
77 [label="gini = 0.0\nsamples = 10\nvalue = [10, 0]\nclass = Perish"] ;
76 -> 77 ;
78 [label="gini = 0.0\nsamples = 1\nvalue = [0, 1]\nclass = Survivied"] ;
76 -> 78 ;
79 [label="Fare <= 17.6\ngini = 0.412\nsamples = 31\nvalue = [9, 22]\nclass = Survivied"] ;
61 -> 79 ;
80 [label="Age <= 25.0\ngini = 0.188\nsamples = 19\nvalue = [2, 17]\nclass = Survivied"] ;
79 -> 80 ;
81 [label="gini = 0.0\nsamples = 10\nvalue = [0, 10]\nclass = Survivied"] ;
80 -> 81 ;
82 [label="Age <= 26.5\ngini = 0.346\nsamples = 9\nvalue = [2, 7]\nclass = Survivied"] ;
80 -> 82 ;
83 [label="gini = 0.0\nsamples = 1\nvalue = [1, 0]\nclass = Perish"] ;
82 -> 83 ;
84 [label="Age <= 28.85\ngini = 0.219\nsamples = 8\nvalue = [1, 7]\nclass = Survivied"] ;
82 -> 84 ;
85 [label="gini = 0.444\nsamples = 3\nvalue = [1, 2]\nclass = Survivied"] ;
84 -> 85 ;
86 [label="gini = 0.0\nsamples = 5\nvalue = [0, 5]\nclass = Survivied"] ;
84 -> 86 ;
87 [label="SibSp <= 1.5\ngini = 0.486\nsamples = 12\nvalue = [7, 5]\nclass = Perish"] ;
79 -> 87 ;
88 [label="Fare <= 19.125\ngini = 0.469\nsamples = 8\nvalue = [3, 5]\nclass = Survivied"] ;
87 -> 88 ;
89 [label="gini = 0.0\nsamples = 2\nvalue = [2, 0]\nclass = Perish"] ;
88 -> 89 ;
90 [label="Parch <= 3.0\ngini = 0.278\nsamples = 6\nvalue = [1, 5]\nclass = Survivied"] ;
88 -> 90 ;
91 [label="gini = 0.0\nsamples = 5\nvalue = [0, 5]\nclass = Survivied"] ;
90 -> 91 ;
92 [label="gini = 0.0\nsamples = 1\nvalue = [1, 0]\nclass = Perish"] ;
90 -> 92 ;
93 [label="gini = 0.0\nsamples = 4\nvalue = [4, 0]\nclass = Perish"] ;
87 -> 93 ;
94 [label="Age <= 55.0\ngini = 0.245\nsamples = 7\nvalue = [6, 1]\nclass = Perish"] ;
44 -> 94 ;
95 [label="gini = 0.0\nsamples = 6\nvalue = [6, 0]\nclass = Perish"] ;
94 -> 95 ;
96 [label="gini = 0.0\nsamples = 1\nvalue = [0, 1]\nclass = Survivied"] ;
94 -> 96 ;
97 [label="Parch <= 0.5\ngini = 0.165\nsamples = 44\nvalue = [40, 4]\nclass = Perish"] ;
43 -> 97 ;
98 [label="gini = 0.0\nsamples = 1\nvalue = [0, 1]\nclass = Survivied"] ;
97 -> 98 ;
99 [label="Fare <= 31.331\ngini = 0.13\nsamples = 43\nvalue = [40, 3]\nclass = Perish"] ;
97 -> 99 ;
100 [label="gini = 0.0\nsamples = 23\nvalue = [23, 0]\nclass = Perish"] ;
99 -> 100 ;
101 [label="Fare <= 32.881\ngini = 0.255\nsamples = 20\nvalue = [17, 3]\nclass = Perish"] ;
99 -> 101 ;
102 [label="Title_Master <= 0.5\ngini = 0.375\nsamples = 4\nvalue = [1, 3]\nclass = Survivied"] ;
101 -> 102 ;
103 [label="gini = 0.0\nsamples = 2\nvalue = [0, 2]\nclass = Survivied"] ;
102 -> 103 ;
104 [label="Age <= 6.0\ngini = 0.5\nsamples = 2\nvalue = [1, 1]\nclass = Perish"] ;
102 -> 104 ;
105 [label="gini = 0.0\nsamples = 1\nvalue = [0, 1]\nclass = Survivied"] ;
104 -> 105 ;
106 [label="gini = 0.0\nsamples = 1\nvalue = [1, 0]\nclass = Perish"] ;
104 -> 106 ;
107 [label="gini = 0.0\nsamples = 16\nvalue = [16, 0]\nclass = Perish"] ;
101 -> 107 ;
108 [label="Fare <= 26.269\ngini = 0.264\nsamples = 517\nvalue = [436, 81]\nclass = Perish"] ;
0 -> 108 [labeldistance=2.5, labelangle=-45, headlabel="False"] ;
109 [label="Ticket_encode <= 0.5\ngini = 0.18\nsamples = 390\nvalue = [351, 39]\nclass = Perish"] ;
108 -> 109 ;
110 [label="Age <= 19.5\ngini = 0.156\nsamples = 293\nvalue = [268, 25]\nclass = Perish"] ;
109 -> 110 ;
111 [label="gini = 0.0\nsamples = 33\nvalue = [33, 0]\nclass = Perish"] ;
110 -> 111 ;
112 [label="Age <= 32.5\ngini = 0.174\nsamples = 260\nvalue = [235, 25]\nclass = Perish"] ;
110 -> 112 ;
113 [label="Age <= 30.75\ngini = 0.21\nsamples = 185\nvalue = [163, 22]\nclass = Perish"] ;
112 -> 113 ;
114 [label="Parch <= 0.5\ngini = 0.193\nsamples = 176\nvalue = [157, 19]\nclass = Perish"] ;
113 -> 114 ;
115 [label="Fare <= 7.812\ngini = 0.185\nsamples = 174\nvalue = [156, 18]\nclass = Perish"] ;
114 -> 115 ;
116 [label="Age <= 29.35\ngini = 0.254\nsamples = 67\nvalue = [57, 10]\nclass = Perish"] ;
115 -> 116 ;
117 [label="Age <= 21.5\ngini = 0.403\nsamples = 25\nvalue = [18, 7]\nclass = Perish"] ;
116 -> 117 ;
118 [label="gini = 0.5\nsamples = 4\nvalue = [2, 2]\nclass = Perish"] ;
117 -> 118 ;
119 [label="gini = 0.363\nsamples = 21\nvalue = [16, 5]\nclass = Perish"] ;
117 -> 119 ;
120 [label="Fare <= 7.763\ngini = 0.133\nsamples = 42\nvalue = [39, 3]\nclass = Perish"] ;
116 -> 120 ;
121 [label="gini = 0.095\nsamples = 40\nvalue = [38, 2]\nclass = Perish"] ;
120 -> 121 ;
122 [label="gini = 0.5\nsamples = 2\nvalue = [1, 1]\nclass = Perish"] ;
120 -> 122 ;
123 [label="Age <= 25.5\ngini = 0.138\nsamples = 107\nvalue = [99, 8]\nclass = Perish"] ;
115 -> 123 ;
124 [label="gini = 0.0\nsamples = 33\nvalue = [33, 0]\nclass = Perish"] ;
123 -> 124 ;
125 [label="Fare <= 8.081\ngini = 0.193\nsamples = 74\nvalue = [66, 8]\nclass = Perish"] ;
123 -> 125 ;
126 [label="gini = 0.057\nsamples = 34\nvalue = [33, 1]\nclass = Perish"] ;
125 -> 126 ;
127 [label="gini = 0.289\nsamples = 40\nvalue = [33, 7]\nclass = Perish"] ;
125 -> 127 ;
128 [label="SibSp <= 1.5\ngini = 0.5\nsamples = 2\nvalue = [1, 1]\nclass = Perish"] ;
114 -> 128 ;
129 [label="gini = 0.0\nsamples = 1\nvalue = [0, 1]\nclass = Survivied"] ;
128 -> 129 ;
130 [label="gini = 0.0\nsamples = 1\nvalue = [1, 0]\nclass = Perish"] ;
128 -> 130 ;
131 [label="Pclass <= 2.5\ngini = 0.444\nsamples = 9\nvalue = [6, 3]\nclass = Perish"] ;
113 -> 131 ;
132 [label="gini = 0.0\nsamples = 2\nvalue = [0, 2]\nclass = Survivied"] ;
131 -> 132 ;
133 [label="Fare <= 7.815\ngini = 0.245\nsamples = 7\nvalue = [6, 1]\nclass = Perish"] ;
131 -> 133 ;
134 [label="gini = 0.0\nsamples = 3\nvalue = [3, 0]\nclass = Perish"] ;
133 -> 134 ;
135 [label="Fare <= 7.875\ngini = 0.375\nsamples = 4\nvalue = [3, 1]\nclass = Perish"] ;
133 -> 135 ;
136 [label="gini = 0.0\nsamples = 1\nvalue = [0, 1]\nclass = Survivied"] ;
135 -> 136 ;
137 [label="gini = 0.0\nsamples = 3\nvalue = [3, 0]\nclass = Perish"] ;
135 -> 137 ;
138 [label="Fare <= 7.988\ngini = 0.077\nsamples = 75\nvalue = [72, 3]\nclass = Perish"] ;
112 -> 138 ;
139 [label="gini = 0.0\nsamples = 28\nvalue = [28, 0]\nclass = Perish"] ;
138 -> 139 ;
140 [label="Fare <= 13.25\ngini = 0.12\nsamples = 47\nvalue = [44, 3]\nclass = Perish"] ;
138 -> 140 ;
141 [label="Fare <= 11.75\ngini = 0.204\nsamples = 26\nvalue = [23, 3]\nclass = Perish"] ;
140 -> 141 ;
142 [label="Age <= 44.5\ngini = 0.117\nsamples = 16\nvalue = [15, 1]\nclass = Perish"] ;
141 -> 142 ;
143 [label="gini = 0.0\nsamples = 13\nvalue = [13, 0]\nclass = Perish"] ;
142 -> 143 ;
144 [label="Age <= 46.0\ngini = 0.444\nsamples = 3\nvalue = [2, 1]\nclass = Perish"] ;
142 -> 144 ;
145 [label="gini = 0.0\nsamples = 1\nvalue = [0, 1]\nclass = Survivied"] ;
144 -> 145 ;
146 [label="gini = 0.0\nsamples = 2\nvalue = [2, 0]\nclass = Perish"] ;
144 -> 146 ;
147 [label="Age <= 45.0\ngini = 0.32\nsamples = 10\nvalue = [8, 2]\nclass = Perish"] ;
141 -> 147 ;
148 [label="Age <= 40.5\ngini = 0.408\nsamples = 7\nvalue = [5, 2]\nclass = Perish"] ;
147 -> 148 ;
149 [label="gini = 0.278\nsamples = 6\nvalue = [5, 1]\nclass = Perish"] ;
148 -> 149 ;
150 [label="gini = 0.0\nsamples = 1\nvalue = [0, 1]\nclass = Survivied"] ;
148 -> 150 ;
151 [label="gini = 0.0\nsamples = 3\nvalue = [3, 0]\nclass = Perish"] ;
147 -> 151 ;
152 [label="gini = 0.0\nsamples = 21\nvalue = [21, 0]\nclass = Perish"] ;
140 -> 152 ;
153 [label="Age <= 20.25\ngini = 0.247\nsamples = 97\nvalue = [83, 14]\nclass = Perish"] ;
109 -> 153 ;
154 [label="Fare <= 7.525\ngini = 0.459\nsamples = 14\nvalue = [9, 5]\nclass = Perish"] ;
153 -> 154 ;
155 [label="gini = 0.0\nsamples = 3\nvalue = [3, 0]\nclass = Perish"] ;
154 -> 155 ;
156 [label="Fare <= 8.104\ngini = 0.496\nsamples = 11\nvalue = [6, 5]\nclass = Perish"] ;
154 -> 156 ;
157 [label="Age <= 19.5\ngini = 0.49\nsamples = 7\nvalue = [3, 4]\nclass = Survivied"] ;
156 -> 157 ;
158 [label="Age <= 17.0\ngini = 0.375\nsamples = 4\nvalue = [1, 3]\nclass = Survivied"] ;
157 -> 158 ;
159 [label="gini = 0.5\nsamples = 2\nvalue = [1, 1]\nclass = Perish"] ;
158 -> 159 ;
160 [label="gini = 0.0\nsamples = 2\nvalue = [0, 2]\nclass = Survivied"] ;
158 -> 160 ;
161 [label="SibSp <= 0.5\ngini = 0.444\nsamples = 3\nvalue = [2, 1]\nclass = Perish"] ;
157 -> 161 ;
162 [label="gini = 0.0\nsamples = 2\nvalue = [2, 0]\nclass = Perish"] ;
161 -> 162 ;
163 [label="gini = 0.0\nsamples = 1\nvalue = [0, 1]\nclass = Survivied"] ;
161 -> 163 ;
164 [label="Age <= 17.5\ngini = 0.375\nsamples = 4\nvalue = [3, 1]\nclass = Perish"] ;
156 -> 164 ;
165 [label="gini = 0.0\nsamples = 2\nvalue = [2, 0]\nclass = Perish"] ;
164 -> 165 ;
166 [label="Pclass <= 2.5\ngini = 0.5\nsamples = 2\nvalue = [1, 1]\nclass = Perish"] ;
164 -> 166 ;
167 [label="gini = 0.0\nsamples = 1\nvalue = [0, 1]\nclass = Survivied"] ;
166 -> 167 ;
168 [label="gini = 0.0\nsamples = 1\nvalue = [1, 0]\nclass = Perish"] ;
166 -> 168 ;
169 [label="Age <= 30.5\ngini = 0.193\nsamples = 83\nvalue = [74, 9]\nclass = Perish"] ;
153 -> 169 ;
170 [label="Fare <= 3.525\ngini = 0.111\nsamples = 51\nvalue = [48, 3]\nclass = Perish"] ;
169 -> 170 ;
171 [label="gini = 0.0\nsamples = 1\nvalue = [0, 1]\nclass = Survivied"] ;
170 -> 171 ;
172 [label="Embarked_C <= 0.5\ngini = 0.077\nsamples = 50\nvalue = [48, 2]\nclass = Perish"] ;
170 -> 172 ;
173 [label="Fare <= 7.196\ngini = 0.043\nsamples = 46\nvalue = [45, 1]\nclass = Perish"] ;
172 -> 173 ;
174 [label="Fare <= 7.133\ngini = 0.278\nsamples = 6\nvalue = [5, 1]\nclass = Perish"] ;
173 -> 174 ;
175 [label="gini = 0.0\nsamples = 5\nvalue = [5, 0]\nclass = Perish"] ;
174 -> 175 ;
176 [label="gini = 0.0\nsamples = 1\nvalue = [0, 1]\nclass = Survivied"] ;
174 -> 176 ;
177 [label="gini = 0.0\nsamples = 40\nvalue = [40, 0]\nclass = Perish"] ;
173 -> 177 ;
178 [label="Fare <= 14.454\ngini = 0.375\nsamples = 4\nvalue = [3, 1]\nclass = Perish"] ;
172 -> 178 ;
179 [label="gini = 0.0\nsamples = 1\nvalue = [0, 1]\nclass = Survivied"] ;
178 -> 179 ;
180 [label="gini = 0.0\nsamples = 3\nvalue = [3, 0]\nclass = Perish"] ;
178 -> 180 ;
181 [label="Fare <= 7.738\ngini = 0.305\nsamples = 32\nvalue = [26, 6]\nclass = Perish"] ;
169 -> 181 ;
182 [label="gini = 0.0\nsamples = 9\nvalue = [9, 0]\nclass = Perish"] ;
181 -> 182 ;
183 [label="Fare <= 7.988\ngini = 0.386\nsamples = 23\nvalue = [17, 6]\nclass = Perish"] ;
181 -> 183 ;
184 [label="Age <= 35.5\ngini = 0.444\nsamples = 6\nvalue = [2, 4]\nclass = Survivied"] ;
183 -> 184 ;
185 [label="Age <= 31.5\ngini = 0.5\nsamples = 4\nvalue = [2, 2]\nclass = Perish"] ;
184 -> 185 ;
186 [label="gini = 0.0\nsamples = 1\nvalue = [0, 1]\nclass = Survivied"] ;
185 -> 186 ;
187 [label="gini = 0.444\nsamples = 3\nvalue = [2, 1]\nclass = Perish"] ;
185 -> 187 ;
188 [label="gini = 0.0\nsamples = 2\nvalue = [0, 2]\nclass = Survivied"] ;
184 -> 188 ;
189 [label="Age <= 58.75\ngini = 0.208\nsamples = 17\nvalue = [15, 2]\nclass = Perish"] ;
183 -> 189 ;
190 [label="Age <= 32.5\ngini = 0.133\nsamples = 14\nvalue = [13, 1]\nclass = Perish"] ;
189 -> 190 ;
191 [label="Fare <= 9.275\ngini = 0.375\nsamples = 4\nvalue = [3, 1]\nclass = Perish"] ;
190 -> 191 ;
192 [label="gini = 0.0\nsamples = 1\nvalue = [0, 1]\nclass = Survivied"] ;
191 -> 192 ;
193 [label="gini = 0.0\nsamples = 3\nvalue = [3, 0]\nclass = Perish"] ;
191 -> 193 ;
194 [label="gini = 0.0\nsamples = 10\nvalue = [10, 0]\nclass = Perish"] ;
190 -> 194 ;
195 [label="Age <= 64.0\ngini = 0.444\nsamples = 3\nvalue = [2, 1]\nclass = Perish"] ;
189 -> 195 ;
196 [label="gini = 0.0\nsamples = 1\nvalue = [0, 1]\nclass = Survivied"] ;
195 -> 196 ;
197 [label="gini = 0.0\nsamples = 2\nvalue = [2, 0]\nclass = Perish"] ;
195 -> 197 ;
198 [label="Fare <= 26.775\ngini = 0.443\nsamples = 127\nvalue = [85, 42]\nclass = Perish"] ;
108 -> 198 ;
199 [label="Age <= 53.5\ngini = 0.43\nsamples = 16\nvalue = [5, 11]\nclass = Survivied"] ;
198 -> 199 ;
200 [label="Age <= 31.85\ngini = 0.153\nsamples = 12\nvalue = [1, 11]\nclass = Survivied"] ;
199 -> 200 ;
201 [label="Age <= 28.85\ngini = 0.444\nsamples = 3\nvalue = [1, 2]\nclass = Survivied"] ;
200 -> 201 ;
202 [label="gini = 0.0\nsamples = 1\nvalue = [0, 1]\nclass = Survivied"] ;
201 -> 202 ;
203 [label="gini = 0.5\nsamples = 2\nvalue = [1, 1]\nclass = Perish"] ;
201 -> 203 ;
204 [label="gini = 0.0\nsamples = 9\nvalue = [0, 9]\nclass = Survivied"] ;
200 -> 204 ;
205 [label="gini = 0.0\nsamples = 4\nvalue = [4, 0]\nclass = Perish"] ;
199 -> 205 ;
206 [label="Ticket_encode <= 0.5\ngini = 0.403\nsamples = 111\nvalue = [80, 31]\nclass = Perish"] ;
198 -> 206 ;
207 [label="Age <= 43.5\ngini = 0.464\nsamples = 71\nvalue = [45, 26]\nclass = Perish"] ;
206 -> 207 ;
208 [label="Fare <= 52.277\ngini = 0.498\nsamples = 47\nvalue = [25, 22]\nclass = Perish"] ;
207 -> 208 ;
209 [label="Fare <= 37.594\ngini = 0.444\nsamples = 24\nvalue = [16, 8]\nclass = Perish"] ;
208 -> 209 ;
210 [label="SibSp <= 0.5\ngini = 0.5\nsamples = 16\nvalue = [8, 8]\nclass = Perish"] ;
209 -> 210 ;
211 [label="Fare <= 28.725\ngini = 0.444\nsamples = 12\nvalue = [4, 8]\nclass = Survivied"] ;
210 -> 211 ;
212 [label="gini = 0.0\nsamples = 1\nvalue = [1, 0]\nclass = Perish"] ;
211 -> 212 ;
213 [label="Embarked_S <= 0.5\ngini = 0.397\nsamples = 11\nvalue = [3, 8]\nclass = Survivied"] ;
211 -> 213 ;
214 [label="gini = 0.0\nsamples = 3\nvalue = [0, 3]\nclass = Survivied"] ;
213 -> 214 ;
215 [label="gini = 0.469\nsamples = 8\nvalue = [3, 5]\nclass = Survivied"] ;
213 -> 215 ;
216 [label="gini = 0.0\nsamples = 4\nvalue = [4, 0]\nclass = Perish"] ;
210 -> 216 ;
217 [label="gini = 0.0\nsamples = 8\nvalue = [8, 0]\nclass = Perish"] ;
209 -> 217 ;
218 [label="Fare <= 165.75\ngini = 0.476\nsamples = 23\nvalue = [9, 14]\nclass = Survivied"] ;
208 -> 218 ;
219 [label="Fare <= 84.425\ngini = 0.444\nsamples = 21\nvalue = [7, 14]\nclass = Survivied"] ;
218 -> 219 ;
220 [label="Fare <= 61.8\ngini = 0.484\nsamples = 17\nvalue = [7, 10]\nclass = Survivied"] ;
219 -> 220 ;
221 [label="Age <= 22.0\ngini = 0.408\nsamples = 14\nvalue = [4, 10]\nclass = Survivied"] ;
220 -> 221 ;
222 [label="gini = 0.0\nsamples = 1\nvalue = [1, 0]\nclass = Perish"] ;
221 -> 222 ;
223 [label="gini = 0.355\nsamples = 13\nvalue = [3, 10]\nclass = Survivied"] ;
221 -> 223 ;
224 [label="gini = 0.0\nsamples = 3\nvalue = [3, 0]\nclass = Perish"] ;
220 -> 224 ;
225 [label="gini = 0.0\nsamples = 4\nvalue = [0, 4]\nclass = Survivied"] ;
219 -> 225 ;
226 [label="gini = 0.0\nsamples = 2\nvalue = [2, 0]\nclass = Perish"] ;
218 -> 226 ;
227 [label="Age <= 72.5\ngini = 0.278\nsamples = 24\nvalue = [20, 4]\nclass = Perish"] ;
207 -> 227 ;
228 [label="SibSp <= 0.5\ngini = 0.227\nsamples = 23\nvalue = [20, 3]\nclass = Perish"] ;
227 -> 228 ;
229 [label="gini = 0.0\nsamples = 14\nvalue = [14, 0]\nclass = Perish"] ;
228 -> 229 ;
230 [label="Embarked_C <= 0.5\ngini = 0.444\nsamples = 9\nvalue = [6, 3]\nclass = Perish"] ;
228 -> 230 ;
231 [label="Fare <= 53.95\ngini = 0.278\nsamples = 6\nvalue = [5, 1]\nclass = Perish"] ;
230 -> 231 ;
232 [label="Fare <= 45.5\ngini = 0.5\nsamples = 2\nvalue = [1, 1]\nclass = Perish"] ;
231 -> 232 ;
233 [label="gini = 0.0\nsamples = 1\nvalue = [1, 0]\nclass = Perish"] ;
232 -> 233 ;
234 [label="gini = 0.0\nsamples = 1\nvalue = [0, 1]\nclass = Survivied"] ;
232 -> 234 ;
235 [label="gini = 0.0\nsamples = 4\nvalue = [4, 0]\nclass = Perish"] ;
231 -> 235 ;
236 [label="Fare <= 99.994\ngini = 0.444\nsamples = 3\nvalue = [1, 2]\nclass = Survivied"] ;
230 -> 236 ;
237 [label="gini = 0.0\nsamples = 2\nvalue = [0, 2]\nclass = Survivied"] ;
236 -> 237 ;
238 [label="gini = 0.0\nsamples = 1\nvalue = [1, 0]\nclass = Perish"] ;
236 -> 238 ;
239 [label="gini = 0.0\nsamples = 1\nvalue = [0, 1]\nclass = Survivied"] ;
227 -> 239 ;
240 [label="Fare <= 379.925\ngini = 0.219\nsamples = 40\nvalue = [35, 5]\nclass = Perish"] ;
206 -> 240 ;
241 [label="Embarked_C <= 0.5\ngini = 0.145\nsamples = 38\nvalue = [35, 3]\nclass = Perish"] ;
240 -> 241 ;
242 [label="gini = 0.0\nsamples = 17\nvalue = [17, 0]\nclass = Perish"] ;
241 -> 242 ;
243 [label="Fare <= 62.369\ngini = 0.245\nsamples = 21\nvalue = [18, 3]\nclass = Perish"] ;
241 -> 243 ;
244 [label="gini = 0.0\nsamples = 10\nvalue = [10, 0]\nclass = Perish"] ;
243 -> 244 ;
245 [label="Fare <= 77.965\ngini = 0.397\nsamples = 11\nvalue = [8, 3]\nclass = Perish"] ;
243 -> 245 ;
246 [label="gini = 0.0\nsamples = 3\nvalue = [0, 3]\nclass = Survivied"] ;
245 -> 246 ;
247 [label="gini = 0.0\nsamples = 8\nvalue = [8, 0]\nclass = Perish"] ;
245 -> 247 ;
248 [label="gini = 0.0\nsamples = 2\nvalue = [0, 2]\nclass = Survivied"] ;
240 -> 248 ;
}